[
    {
        "l1_weights": [
            [
                -0.008961301027284098,
                -0.0147201480727178,
                0.0006142316532484135,
                0.01383302819327845,
                0.014385628160957075,
                0.017026753204082194,
                0.011931259601052837,
                -0.0022385282588793104
            ],
            [
                0.0056773726525601274,
                0.005191820105071802,
                -0.016956023056072717,
                0.018109371462440415,
                0.007697040797445068,
                -0.018891579088967082,
                0.004208365867042448,
                0.004340234373694757
            ],
            [
                -0.012010057805304425,
                0.0014480040621320488,
                -0.00478067635499865,
                -0.002897791655772382,
                -0.012800388010174486,
                -0.008094119982833861,
                0.01461941278595601,
                0.00027652451027881594
            ],
            [
                -0.009196969892295223,
                0.007748198865488083,
                0.013553464115789778,
                0.008467829144018557,
                -0.00886054175368517,
                -0.009716200459957252,
                -0.0057999096576651695,
                0.011164756983987655
            ],
            [
                0.020910339383505134,
                -0.0172097749494715,
                0.014525273108502466,
                0.00878294123871214,
                0.002543758172655934,
                -0.009919987534037824,
                0.0159070859565953,
                0.02032649526121966
            ],
            [
                -0.014596556810059672,
                -0.010816465626712622,
                0.0071427861404746934,
                -0.013077772021672852,
                -0.008462334765174353,
                -0.01148181507079951,
                -0.006264059418185029,
                -0.006790581445545256
            ],
            [
                0.0037240090299494578,
                -0.010650946167233616,
                0.01357078669620709,
                -0.009932749678819764,
                0.0018552373564971608,
                -0.017844501756186334,
                0.018086429537434084,
                0.013857323888322498
            ],
            [
                0.007511890050286626,
                -0.0009886077742588004,
                -0.011899031818652421,
                0.010004002194877924,
                -0.00044906317972708443,
                0.014110081186925815,
                -0.001122302876129132,
                -0.004392830761651093
            ],
            [
                -0.01742757938998622,
                0.016960554276158394,
                -0.01995739067094351,
                0.013667572582777145,
                0.015368243664021002,
                0.007244135448597998,
                -0.013320613512978322,
                -0.016574682972234106
            ],
            [
                -0.018613945556232966,
                0.003761354318553959,
                0.005096658480752355,
                -0.01162641872199415,
                -0.019388903455398957,
                0.01463180031219655,
                0.019618251107349948,
                0.007407342148202372
            ],
            [
                0.012075093124795195,
                0.005405780972982148,
                0.0008265899455739221,
                0.008976560404853416,
                -0.01347432108718794,
                0.015988074118697796,
                0.008505804321348367,
                -0.012393959387156601
            ],
            [
                -0.017222337434049138,
                0.00700037793867812,
                7.452811912833646e-06,
                0.004021143440895275,
                -0.007365446424746583,
                -0.009608083465450147,
                -0.018005419342382614,
                -0.008650058876334561
            ]
        ],
        "l2_weights": [
            [
                0.015705802476068776,
                -0.003760317362286926,
                0.012909648553431205,
                0.013691713815131772
            ],
            [
                0.005382668839018893,
                -0.007454641117396371,
                -0.017585361579995,
                -0.018161255790906647
            ],
            [
                0.0037505704128704444,
                -0.008089618124133264,
                0.015724500968512075,
                -0.007260954128952942
            ],
            [
                -0.01588623911922435,
                0.01766829931928025,
                0.003293381118045386,
                0.005262655757358615
            ],
            [
                -0.015550374360452004,
                0.0013760264900248712,
                -0.00841600682676337,
                0.006900352239207531
            ],
            [
                -0.007225970215082459,
                0.012915778677960548,
                -0.00895497017058729,
                -0.013007973794826766
            ],
            [
                0.00788908333014755,
                0.0034272584417580436,
                0.005796537224467137,
                0.0088526796684307
            ],
            [
                0.016324392965983953,
                -0.012759873274086285,
                -0.0013269993247048855,
                -0.01742004574076483
            ]
        ],
        "l1_biases": [
            0.0,
            0.0,
            0.0,
            0.0,
            0.0,
            0.0,
            0.0,
            0.0
        ],
        "l2_biases": [
            0.0,
            0.0,
            0.0,
            0.0
        ]
    },
    {
        "l1_weights": [
            [
                -0.008969998365137446,
                -0.013782849369108117,
                0.0006142316532484135,
                0.011110248567520088,
                0.014333555040481314,
                0.01864036063417838,
                0.011560618739693372,
                -0.0020643131435052605
            ],
            [
                0.0056773726525601274,
                0.005020979730294332,
                -0.016525353756915925,
                0.018109371462440415,
                0.009027879825270669,
                -0.017724247685603156,
                0.004096559650183265,
                0.0046069238401813505
            ],
            [
                -0.012723442378308308,
                0.0013919206486605214,
                -0.004991816803131648,
                -0.002867830440369031,
                -0.012800388010174486,
                -0.007417032946617579,
                0.01461941278595601,
                0.0002988955179750641
            ],
            [
                -0.010812926591262161,
                0.006320416723731711,
                0.013553464115789778,
                0.008467829144018557,
                -0.008214912564733865,
                -0.009716200459957252,
                -0.0057999096576651695,
                0.01036721044932417
            ],
            [
                0.01972378546288613,
                -0.01733672327286229,
                0.015463511888156301,
                0.00878294123871214,
                0.002760345490753234,
                -0.009781315494613476,
                0.0159070859565953,
                0.018057506006783564
            ],
            [
                -0.014596556810059672,
                -0.011265644691763482,
                0.007097558106477865,
                -0.013077772021672852,
                -0.008604915472626757,
                -0.01239350085602411,
                -0.006264059418185029,
                -0.006477696736279595
            ],
            [
                0.0039026192003771805,
                -0.008918550627105223,
                0.012714398566193875,
                -0.009932749678819764,
                0.0019672767423682593,
                -0.02092547393496086,
                0.016090863357571313,
                0.01404794033996498
            ],
            [
                0.008681656709565621,
                -0.0008545959448044588,
                -0.01227969213480264,
                0.010004002194877924,
                -0.00040698430049023837,
                0.014531954622211874,
                -0.001121547251620468,
                -0.004447783224031929
            ],
            [
                -0.01875657145333568,
                0.016960554276158394,
                -0.01966394275864835,
                0.015003059712576663,
                0.015633033232855503,
                0.007555524030553599,
                -0.013320613512978322,
                -0.016574682972234106
            ],
            [
                -0.018613945556232966,
                0.003761354318553959,
                0.005096658480752355,
                -0.011784028972855576,
                -0.01830688710332365,
                0.01463180031219655,
                0.019618251107349948,
                0.007762668910015345
            ],
            [
                0.011260313768482275,
                0.005157317333655898,
                0.0008511092731828158,
                0.008976560404853416,
                -0.014588600228601135,
                0.014888439395072641,
                0.0077495155075412644,
                -0.012587053512664672
            ],
            [
                -0.014658427178473862,
                0.006588477176955633,
                7.127991115201931e-06,
                0.004648557832653165,
                -0.007772051284351934,
                -0.009500997888042663,
                -0.01767940770391253,
                -0.009437820166149087
            ]
        ],
        "l2_weights": [
            [
                0.016346524083128464,
                -0.004141380676580361,
                0.012915302137478204,
                0.014246830296313299
            ],
            [
                0.005382668839018893,
                -0.0069582889899086325,
                -0.01651336076286685,
                -0.018161255790906647
            ],
            [
                0.0037505704128704444,
                -0.008089618124133264,
                0.015724500968512075,
                -0.008465913511647914
            ],
            [
                -0.015387560336311258,
                0.01728792079539843,
                0.003350077943530358,
                0.005262655757358615
            ],
            [
                -0.01550197218419301,
                0.001351586579202712,
                -0.007657521796169211,
                0.006900352239207531
            ],
            [
                -0.00651944361915177,
                0.013728649059246398,
                -0.008688052836587272,
                -0.011810032533189912
            ],
            [
                0.007422235339856736,
                0.0028905974996679576,
                0.005796537224467137,
                0.009360561561820909
            ],
            [
                0.015384978521347615,
                -0.011844597804995338,
                -0.001349629852674901,
                -0.016451187627844043
            ]
        ],
        "l1_biases": [
            0.0,
            0.0,
            0.0,
            0.0,
            0.0,
            0.0,
            0.0,
            0.0
        ],
        "l2_biases": [
            0.0,
            0.0,
            0.0,
            0.0
        ]
    },
    {
        "l1_weights": [
            [
                -0.008969998365137446,
                -0.0147201480727178,
                0.0005869052938192939,
                0.012786865894759313,
                0.01516765543871416,
                0.020325979178370257,
                0.011931259601052837,
                -0.002093095334507387
            ],
            [
                0.006005293678607437,
                0.005191820105071802,
                -0.016956023056072717,
                0.01849935611521542,
                0.007516221352755767,
                -0.018911891202158342,
                0.0038119279331463264,
                0.0046069238401813505
            ],
            [
                -0.011864319055885282,
                0.0014797918833947506,
                -0.00478067635499865,
                -0.002867830440369031,
                -0.01372471887089014,
                -0.007473314873574123,
                0.01461941278595601,
                0.00027652451027881594
            ],
            [
                -0.008390228648806874,
                0.007143053458921644,
                0.014657214887106296,
                0.008764360588018659,
                -0.008214912564733865,
                -0.010030771694125657,
                -0.0057999096576651695,
                0.010647436608988013
            ],
            [
                0.01972378546288613,
                -0.01733672327286229,
                0.014754759999779567,
                0.008367759123344526,
                0.0026402212337142887,
                -0.009897483143712705,
                0.0159070859565953,
                0.018057506006783564
            ],
            [
                -0.014596556810059672,
                -0.011056424677196093,
                0.006365060725396645,
                -0.013077772021672852,
                -0.008072709522651968,
                -0.01239350085602411,
                -0.006264059418185029,
                -0.006790581445545256
            ],
            [
                0.003256694404098192,
                -0.00991072578452421,
                0.01444347150821225,
                -0.009932749678819764,
                0.0018552373564971608,
                -0.01787624572970572,
                0.015016497096806898,
                0.014697052871316348
            ],
            [
                0.007511890050286626,
                -0.0008680830319592028,
                -0.012182349398287221,
                0.010004002194877924,
                -0.00042502895590390555,
                0.014110081186925815,
                -0.001121547251620468,
                -0.004181069372573182
            ],
            [
                -0.019946975644084614,
                0.016960554276158394,
                -0.020873271044269052,
                0.013667572582777145,
                0.014565763245992212,
                0.007771926634926058,
                -0.014473951921137373,
                -0.016574682972234106
            ],
            [
                -0.01966785330057538,
                0.0034993416988563647,
                0.005096658480752355,
                -0.012755730737863126,
                -0.020088584083930248,
                0.014434859982923107,
                0.019618251107349948,
                0.007978633516487282
            ],
            [
                0.012180722838569576,
                0.005343589309772858,
                0.0008511092731828158,
                0.008976560404853416,
                -0.01509219645290708,
                0.014888439395072641,
                0.0077495155075412644,
                -0.01230995314068349
            ],
            [
                -0.014713447616871655,
                0.007336886051633327,
                7.452811912833646e-06,
                0.004368918733695392,
                -0.006195738587263831,
                -0.010043148523123895,
                -0.01737172340554474,
                -0.008203391362406023
            ]
        ],
        "l2_weights": [
            [
                0.015705802476068776,
                -0.004141380676580361,
                0.012666635820495164,
                0.013691713815131772
            ],
            [
                0.005382668839018893,
                -0.00652448788840407,
                -0.01621777428300606,
                -0.018077077303188152
            ],
            [
                0.0037505704128704444,
                -0.008089618124133264,
                0.01638141562234111,
                -0.006049676620029509
            ],
            [
                -0.015387560336311258,
                0.01766829931928025,
                0.003350077943530358,
                0.005262655757358615
            ],
            [
                -0.015389471878625497,
                0.001351586579202712,
                -0.00916504004264477,
                0.006949850672657961
            ],
            [
                -0.007225970215082459,
                0.011869087172049009,
                -0.009485163321735178,
                -0.012910043118918997
            ],
            [
                0.00788908333014755,
                0.003607322481053048,
                0.006014830838914263,
                0.00860177565192114
            ],
            [
                0.015192837334342598,
                -0.01221887258180431,
                -0.0013141963429607027,
                -0.015920152174903487
            ]
        ],
        "l1_biases": [
            0.0,
            0.0,
            0.0,
            0.0,
            0.0,
            0.0,
            0.0,
            0.0
        ],
        "l2_biases": [
            0.0,
            0.0,
            0.0,
            0.0
        ]
    },
    {
        "l1_weights": [
            [
                -0.008969998365137446,
                -0.015156938731322704,
                0.0006142316532484135,
                0.013624916335243119,
                0.013792284212987999,
                0.01864036063417838,
                0.011931259601052837,
                -0.002093095334507387
            ],
            [
                0.0056773726525601274,
                0.005191820105071802,
                -0.017135522416320548,
                0.017479686986613195,
                0.0076765163586737205,
                -0.018911891202158342,
                0.004388923579922324,
                0.0046069238401813505
            ],
            [
                -0.011627566367209493,
                0.0013420188535467367,
                -0.0045294459267726924,
                -0.003076660759163578,
                -0.013514467259550123,
                -0.008094119982833861,
                0.01461941278595601,
                0.00031256963734320264
            ],
            [
                -0.009196969892295223,
                0.0068852129894034254,
                0.012438290431202667,
                0.00887997279301007,
                -0.008565769888534424,
                -0.009044132909827994,
                -0.005353956361439142,
                0.010997888741832794
            ],
            [
                0.020607799118975974,
                -0.01847046914773968,
                0.014951871603407815,
                0.00878294123871214,
                0.0027293412663519753,
                -0.011844756089916026,
                0.016008682805881313,
                0.018057506006783564
            ],
            [
                -0.015946870230903864,
                -0.010816465626712622,
                0.007972191276818112,
                -0.013077772021672852,
                -0.007538242984873035,
                -0.013553462955574483,
                -0.006264059418185029,
                -0.005909092364611991
            ],
            [
                0.0034522154273764773,
                -0.010536418984269574,
                0.01357078669620709,
                -0.00961644013005095,
                0.0018552373564971608,
                -0.01919333500651099,
                0.016629001731060702,
                0.014432540292047007
            ],
            [
                0.007511890050286626,
                -0.0009223224977021778,
                -0.011899031818652421,
                0.010004002194877924,
                -0.00042502895590390555,
                0.014110081186925815,
                -0.001121547251620468,
                -0.0045487622647800135
            ],
            [
                -0.02005781570749489,
                0.016678986986695,
                -0.01902669327162315,
                0.015463742184834805,
                0.014614205194506454,
                0.007555524030553599,
                -0.014262264171719614,
                -0.016574682972234106
            ],
            [
                -0.01650612859718595,
                0.0037507591289558345,
                0.005096658480752355,
                -0.011262872981739868,
                -0.019388903455398957,
                0.013473582191212492,
                0.019618251107349948,
                0.007595262995773219
            ],
            [
                0.012241394652175254,
                0.005405780972982148,
                0.0008511092731828158,
                0.008976560404853416,
                -0.014588600228601135,
                0.014888439395072641,
                0.0068114560030915206,
                -0.01230995314068349
            ],
            [
                -0.015626881394599217,
                0.00698442203296066,
                7.476337828916714e-06,
                0.004368918733695392,
                -0.007495522358552285,
                -0.009500997888042663,
                -0.018005419342382614,
                -0.008650058876334561
            ]
        ],
        "l2_weights": [
            [
                0.016884709226139615,
                -0.004141380676580361,
                0.013614008848641172,
                0.013691713815131772
            ],
            [
                0.005108515047552043,
                -0.0069582889899086325,
                -0.01597845271577897,
                -0.016872871087016444
            ],
            [
                0.004011159352480907,
                -0.008794276919452185,
                0.015724500968512075,
                -0.007429944284260052
            ],
            [
                -0.01606326286336892,
                0.01836755147979702,
                0.003350077943530358,
                0.005512060623194355
            ],
            [
                -0.015063910774040424,
                0.001351586579202712,
                -0.007961325587961433,
                0.006690645923356804
            ],
            [
                -0.007225970215082459,
                0.013196742705017741,
                -0.00895497017058729,
                -0.012866263009575427
            ],
            [
                0.007134260139186822,
                0.0037462799362212164,
                0.005796537224467137,
                0.009360561561820909
            ],
            [
                0.016958472655132856,
                -0.01221887258180431,
                -0.0014044569453207983,
                -0.015920152174903487
            ]
        ],
        "l1_biases": [
            0.0,
            0.0,
            0.0,
            0.0,
            0.0,
            0.0,
            0.0,
            0.0
        ],
        "l2_biases": [
            0.0,
            0.0,
            0.0,
            0.0
        ]
    },
    {
        "l1_weights": [
            [
                -0.00820744489901008,
                -0.01385812312616561,
                0.0006951808699224385,
                0.013706153770982553,
                0.014385628160957075,
                0.01864036063417838,
                0.012035831875505098,
                -0.0022385282588793104
            ],
            [
                0.0056773726525601274,
                0.005191820105071802,
                -0.016326047096763656,
                0.017011449207710975,
                0.008243449447842974,
                -0.018786621665428042,
                0.004269096107935494,
                0.004357849877512902
            ],
            [
                -0.011627566367209493,
                0.0014480040621320488,
                -0.004658578123125457,
                -0.002867830440369031,
                -0.013502294073852361,
                -0.006983858691664261,
                0.01461941278595601,
                0.00027652451027881594
            ],
            [
                -0.009421957823968891,
                0.006361867272245156,
                0.013248366078246246,
                0.007844829613094465,
                -0.008109278527548575,
                -0.009716200459957252,
                -0.0057999096576651695,
                0.010354047921722705
            ],
            [
                0.019352216633223854,
                -0.01561734387774686,
                0.015463511888156301,
                0.008755578354310024,
                0.0029224544389463932,
                -0.00944167252803067,
                0.0159070859565953,
                0.018057506006783564
            ],
            [
                -0.014596556810059672,
                -0.010816465626712622,
                0.007577717461058314,
                -0.013077772021672852,
                -0.008812643909519866,
                -0.01239350085602411,
                -0.006067762187658522,
                -0.007574124699045738
            ],
            [
                0.0033465031467754154,
                -0.00991072578452421,
                0.01357078669620709,
                -0.009932749678819764,
                0.0018016668659552903,
                -0.0180514509881929,
                0.015757124001326905,
                0.014341946279473845
            ],
            [
                0.007972003858184518,
                -0.0008936194456695002,
                -0.01101644234311689,
                0.009541119202576477,
                -0.00042502895590390555,
                0.014110081186925815,
                -0.0010667313371664656,
                -0.0045487622647800135
            ],
            [
                -0.019102054715473455,
                0.015491188018660113,
                -0.01995739067094351,
                0.013955097846237635,
                0.014614205194506454,
                0.007835237842159646,
                -0.012789143561264964,
                -0.015969613523058607
            ],
            [
                -0.018613945556232966,
                0.0036463497040032985,
                0.005586496390012796,
                -0.010984662633212912,
                -0.02007326416118207,
                0.01463180031219655,
                0.019010146804872494,
                0.00895703057100698
            ],
            [
                0.011842792472080758,
                0.005260150692341724,
                0.0007898338589733806,
                0.008976560404853416,
                -0.014588600228601135,
                0.014888439395072641,
                0.00678765989750292,
                -0.012566921405853256
            ],
            [
                -0.014658427178473862,
                0.007502914714565817,
                7.452811912833646e-06,
                0.004368918733695392,
                -0.007847170484223908,
                -0.008838781096393472,
                -0.017554419209215664,
                -0.007344289068768176
            ]
        ],
        "l2_weights": [
            [
                0.014361626593017741,
                -0.004141380676580361,
                0.013502020383341955,
                0.014730903772732881
            ],
            [
                0.0055033437820452245,
                -0.0069582889899086325,
                -0.01597845271577897,
                -0.019720715851158366
            ],
            [
                0.003604544832145916,
                -0.008178284676619504,
                0.016010328101206027,
                -0.007429944284260052
            ],
            [
                -0.014627356244125573,
                0.01766829931928025,
                0.003350077943530358,
                0.005005941795923817
            ],
            [
                -0.01572100896987571,
                0.0012641634029957496,
                -0.00841600682676337,
                0.007120747222803785
            ],
            [
                -0.007225970215082459,
                0.012915778677960548,
                -0.00863998062652553,
                -0.011810032533189912
            ],
            [
                0.006732653785372739,
                0.003137826988765781,
                0.006019933131902116,
                0.009360561561820909
            ],
            [
                0.018032115275637053,
                -0.013012315802878071,
                -0.0013018970220493675,
                -0.017186238512005104
            ]
        ],
        "l1_biases": [
            0.0,
            0.0,
            0.0,
            0.0,
            0.0,
            0.0,
            0.0,
            0.0
        ],
        "l2_biases": [
            0.0,
            0.0,
            0.0,
            0.0
        ]
    },
    {
        "l1_weights": [
            [
                -0.008969998365137446,
                -0.015617364530902978,
                0.0006142316532484135,
                0.012786865894759313,
                0.014385628160957075,
                0.01864036063417838,
                0.011405582702455038,
                -0.0022370054698071054
            ],
            [
                0.005392645655541504,
                0.005542798409873214,
                -0.016956023056072717,
                0.01893356248353721,
                0.007381986973731623,
                -0.018891579088967082,
                0.00405498451061094,
                0.0046069238401813505
            ],
            [
                -0.011231116686500765,
                0.0014133802754847267,
                -0.00478067635499865,
                -0.002867830440369031,
                -0.012800388010174486,
                -0.008406376420807807,
                0.013706624009833022,
                0.00027652451027881594
            ],
            [
                -0.009196969892295223,
                0.0068852129894034254,
                0.013931024194038704,
                0.008822224902197143,
                -0.008214912564733865,
                -0.009716200459957252,
                -0.00569791093735754,
                0.010997888741832794
            ],
            [
                0.019680560661346738,
                -0.01733672327286229,
                0.014525273108502466,
                0.008816378139609034,
                0.002760345490753234,
                -0.009897483143712705,
                0.0159070859565953,
                0.018057506006783564
            ],
            [
                -0.015928998126505143,
                -0.011556401912474883,
                0.007097558106477865,
                -0.013077772021672852,
                -0.008462334765174353,
                -0.01239350085602411,
                -0.005924662006633617,
                -0.006790581445545256
            ],
            [
                0.0035892477460455173,
                -0.00991072578452421,
                0.014587911555163128,
                -0.009932749678819764,
                0.0017968927897413414,
                -0.01919333500651099,
                0.015078559917596166,
                0.013343291937593994
            ],
            [
                0.007511890050286626,
                -0.0009223224977021778,
                -0.011899031818652421,
                0.010004002194877924,
                -0.00042502895590390555,
                0.015064369451807265,
                -0.0010899831105802078,
                -0.004144733649135392
            ],
            [
                -0.01875657145333568,
                0.016960554276158394,
                -0.01995739067094351,
                0.013667572582777145,
                0.017118592680374925,
                0.007555524030553599,
                -0.013320613512978322,
                -0.016525683223751534
            ],
            [
                -0.016842163272719698,
                0.003940182754972599,
                0.005482630766475994,
                -0.012670308508783723,
                -0.019899827161426156,
                0.015129694244091439,
                0.019618251107349948,
                0.007407802399623457
            ],
            [
                0.012331715597971405,
                0.005528289272409628,
                0.0007985491869348365,
                0.008976560404853416,
                -0.014588600228601135,
                0.015406755913401248,
                0.0077495155075412644,
                -0.01230995314068349
            ],
            [
                -0.015983098599075526,
                0.007069315228897781,
                7.452811912833646e-06,
                0.004368918733695392,
                -0.007365446424746583,
                -0.009206163788357783,
                -0.018005419342382614,
                -0.008650058876334561
            ]
        ],
        "l2_weights": [
            [
                0.016116394834139725,
                -0.004141380676580361,
                0.012666635820495164,
                0.013265758270144961
            ],
            [
                0.005537805400377494,
                -0.0069582889899086325,
                -0.01597845271577897,
                -0.018161255790906647
            ],
            [
                0.0037505704128704444,
                -0.008089618124133264,
                0.015724500968512075,
                -0.007429944284260052
            ],
            [
                -0.015387560336311258,
                0.01766829931928025,
                0.003350077943530358,
                0.005262655757358615
            ],
            [
                -0.015389471878625497,
                0.001351586579202712,
                -0.008019730402385938,
                0.007057383223950277
            ],
            [
                -0.007225970215082459,
                0.012915778677960548,
                -0.008724292813985759,
                -0.011981688324163709
            ],
            [
                0.00788908333014755,
                0.0033893459062398204,
                0.006105356388480166,
                0.009360561561820909
            ],
            [
                0.016185647852396637,
                -0.01221887258180431,
                -0.0013761413276175095,
                -0.015920152174903487
            ]
        ],
        "l1_biases": [
            0.0,
            0.0,
            0.0,
            0.0,
            0.0,
            0.0,
            0.0,
            0.0
        ],
        "l2_biases": [
            0.0,
            0.0,
            0.0,
            0.0
        ]
    },
    {
        "l1_weights": [
            [
                -0.008969998365137446,
                -0.014755413762949948,
                0.0006142316532484135,
                0.012786865894759313,
                0.015457715861194897,
                0.020325979178370257,
                0.01228991502718113,
                -0.002093095334507387
            ],
            [
                0.005697761844286589,
                0.005191820105071802,
                -0.016956023056072717,
                0.018109371462440415,
                0.008384557138811526,
                -0.01921529011514458,
                0.00445932451949301,
                0.004613889248608397
            ],
            [
                -0.011627566367209493,
                0.0014797918833947506,
                -0.005053041309695342,
                -0.002867830440369031,
                -0.011569497276397604,
                -0.008689272461214936,
                0.01473526692962165,
                0.00027652451027881594
            ],
            [
                -0.010031759820208225,
                0.0068852129894034254,
                0.014657214887106296,
                0.009065656647222814,
                -0.008214912564733865,
                -0.009716200459957252,
                -0.0057999096576651695,
                0.010997888741832794
            ],
            [
                0.01972378546288613,
                -0.01733672327286229,
                0.014525273108502466,
                0.008132623432209104,
                0.0030254871439338517,
                -0.009897483143712705,
                0.0159070859565953,
                0.016547776316804215
            ],
            [
                -0.014596556810059672,
                -0.01052478920952418,
                0.006891762765426349,
                -0.013077772021672852,
                -0.008072709522651968,
                -0.011497837387730254,
                -0.005641810815930319,
                -0.006790581445545256
            ],
            [
                0.0035892477460455173,
                -0.01027619887013309,
                0.01492138742334787,
                -0.009932749678819764,
                0.0018552373564971608,
                -0.01787624572970572,
                0.015016497096806898,
                0.01370461973641162
            ],
            [
                0.008034608316129638,
                -0.0009223224977021778,
                -0.011899031818652421,
                0.01009147773087839,
                -0.00042502895590390555,
                0.014110081186925815,
                -0.001121547251620468,
                -0.004181069372573182
            ],
            [
                -0.01875657145333568,
                0.015375160311720008,
                -0.01955370040675777,
                0.012822013957060006,
                0.014894131323828302,
                0.007555524030553599,
                -0.014234310678293413,
                -0.016574682972234106
            ],
            [
                -0.018613945556232966,
                0.0034993416988563647,
                0.005096658480752355,
                -0.010614329252395506,
                -0.01871983613051326,
                0.013457976252191755,
                0.019618251107349948,
                0.007008188488720552
            ],
            [
                0.011195490806041814,
                0.005405780972982148,
                0.0008511092731828158,
                0.008976560404853416,
                -0.014588600228601135,
                0.016001080542362538,
                0.0077495155075412644,
                -0.013444099006311947
            ],
            [
                -0.015983098599075526,
                0.007336886051633327,
                7.660756599577555e-06,
                0.004251785563077152,
                -0.007894744262228222,
                -0.009500997888042663,
                -0.018005419342382614,
                -0.008203391362406023
            ]
        ],
        "l2_weights": [
            [
                0.015705802476068776,
                -0.004141380676580361,
                0.011632332215839012,
                0.012539873947127519
            ],
            [
                0.005353210198221936,
                -0.0069582889899086325,
                -0.01597845271577897,
                -0.01668709191609122
            ],
            [
                0.0038488126053364546,
                -0.008541602929579518,
                0.01638141562234111,
                -0.007580499312712787
            ],
            [
                -0.015387560336311258,
                0.01766829931928025,
                0.003350077943530358,
                0.005262655757358615
            ],
            [
                -0.015389471878625497,
                0.001242734852830889,
                -0.00841600682676337,
                0.006690645923356804
            ],
            [
                -0.007703163505440567,
                0.012971249964643824,
                -0.00895497017058729,
                -0.011981688324163709
            ],
            [
                0.00788908333014755,
                0.0034272584417580436,
                0.006273856477249471,
                0.009360561561820909
            ],
            [
                0.015192837334342598,
                -0.013386290566788202,
                -0.0013141963429607027,
                -0.015920152174903487
            ]
        ],
        "l1_biases": [
            0.0,
            0.0,
            0.0,
            0.0,
            0.0,
            0.0,
            0.0,
            0.0
        ],
        "l2_biases": [
            0.0,
            0.0,
            0.0,
            0.0
        ]
    },
    {
        "l1_weights": [
            [
                -0.008595638350910595,
                -0.014003755335965096,
                0.0006142316532484135,
                0.01420798736452575,
                0.015003638719530924,
                0.018227591192424605,
                0.011280550230070342,
                -0.0022385282588793104
            ],
            [
                0.005562037233383256,
                0.0056320979446373865,
                -0.018573748697047615,
                0.01849551486927585,
                0.007223049963434631,
                -0.017724247685603156,
                0.004262743241472155,
                0.004614336122155772
            ],
            [
                -0.010664015335562904,
                0.0014480040621320488,
                -0.00484594192601303,
                -0.002867830440369031,
                -0.012914255890252286,
                -0.0072855498340701685,
                0.014978987104841053,
                0.00027652451027881594
            ],
            [
                -0.009196969892295223,
                0.0070105829608614065,
                0.013553464115789778,
                0.008561487438972625,
                -0.008214912564733865,
                -0.009716200459957252,
                -0.0057999096576651695,
                0.011607672443702996
            ],
            [
                0.021149597353038396,
                -0.01785666615492517,
                0.01655829855362238,
                0.008057874256673713,
                0.002795753308534395,
                -0.009897483143712705,
                0.0159070859565953,
                0.018057506006783564
            ],
            [
                -0.014119949191210297,
                -0.01023125965502012,
                0.007284765158004796,
                -0.013077772021672852,
                -0.008812643909519866,
                -0.01239350085602411,
                -0.006555923663343773,
                -0.006790581445545256
            ],
            [
                0.003849541655742394,
                -0.00991072578452421,
                0.01357078669620709,
                -0.009932749678819764,
                0.0018552373564971608,
                -0.01931228035636423,
                0.014677378266203479,
                0.014057313140724188
            ],
            [
                0.007511890050286626,
                -0.0009546238039238753,
                -0.011899031818652421,
                0.010004002194877924,
                -0.00045941918135204837,
                0.0144978733634078,
                -0.001017472576112115,
                -0.0045487622647800135
            ],
            [
                -0.02027938979073203,
                0.015437901291898763,
                -0.020209929540592458,
                0.013955097846237635,
                0.01569565520895333,
                0.0076777866551344,
                -0.01309244558020984,
                -0.016574682972234106
            ],
            [
                -0.018613945556232966,
                0.0034775986231827326,
                0.005096658480752355,
                -0.011784028972855576,
                -0.019388903455398957,
                0.01463180031219655,
                0.019618251107349948,
                0.007762668910015345
            ],
            [
                0.012180722838569576,
                0.005260150692341724,
                0.0008511092731828158,
                0.009707449992656525,
                -0.01533486383264641,
                0.014888439395072641,
                0.007690726924537938,
                -0.012671484265009986
            ],
            [
                -0.014658427178473862,
                0.007502914714565817,
                7.221280429974058e-06,
                0.004368918733695392,
                -0.007319521485606929,
                -0.009305156959469499,
                -0.018005419342382614,
                -0.008650058876334561
            ]
        ],
        "l2_weights": [
            [
                0.015705802476068776,
                -0.004255623145654107,
                0.011648060399263773,
                0.012833103384678426
            ],
            [
                0.005998104608153617,
                -0.0069635459991218675,
                -0.014566620152377639,
                -0.018161255790906647
            ],
            [
                0.0036291462079159147,
                -0.008565775457848989,
                0.01719957902206534,
                -0.007429944284260052
            ],
            [
                -0.015387560336311258,
                0.01766829931928025,
                0.003350077943530358,
                0.004935894431714576
            ],
            [
                -0.015777401368657757,
                0.0012641634029957496,
                -0.00841600682676337,
                0.006950335898269123
            ],
            [
                -0.007085205033819944,
                0.014061586001724278,
                -0.009387996163702037,
                -0.011696742446807115
            ],
            [
                0.0075320851689344385,
                0.003137826988765781,
                0.005599044674752812,
                0.009360561561820909
            ],
            [
                0.01672622927512507,
                -0.013037784725718263,
                -0.001371740832280038,
                -0.016451187627844043
            ]
        ],
        "l1_biases": [
            0.0,
            0.0,
            0.0,
            0.0,
            0.0,
            0.0,
            0.0,
            0.0
        ],
        "l2_biases": [
            0.0,
            0.0,
            0.0,
            0.0
        ]
    },
    {
        "l1_weights": [
            [
                -0.008969998365137446,
                -0.0147201480727178,
                0.0006142316532484135,
                0.014141746367975131,
                0.015427981336037488,
                0.01864036063417838,
                0.011931259601052837,
                -0.001908773164253517
            ],
            [
                0.0056773726525601274,
                0.005175984412808334,
                -0.016635999476826747,
                0.019208484905403875,
                0.0076765163586737205,
                -0.020398301801409394,
                0.004388923579922324,
                0.0046069238401813505
            ],
            [
                -0.011627566367209493,
                0.0013420188535467367,
                -0.0040905160123699815,
                -0.002867830440369031,
                -0.012800388010174486,
                -0.007369098792659399,
                0.014908508466509603,
                0.0002890344275905271
            ],
            [
                -0.009196969892295223,
                0.006629912762157608,
                0.011227753069582474,
                0.009638948557053691,
                -0.008624748412720757,
                -0.010355423239189886,
                -0.0051979880435351076,
                0.010264669263345235
            ],
            [
                0.01972378546288613,
                -0.018000507762608507,
                0.014525273108502466,
                0.00878294123871214,
                0.0025307421715676627,
                -0.010842894624979888,
                0.0159070859565953,
                0.018057506006783564
            ],
            [
                -0.014596556810059672,
                -0.010816465626712622,
                0.007972191276818112,
                -0.013077772021672852,
                -0.006990030808091297,
                -0.01239350085602411,
                -0.006264059418185029,
                -0.006066636270367836
            ],
            [
                0.0036126858696489852,
                -0.009788524061360045,
                0.01357078669620709,
                -0.00961644013005095,
                0.0018320256051968017,
                -0.018866075744708957,
                0.01494426867054063,
                0.014751856706058188
            ],
            [
                0.007511890050286626,
                -0.0009223224977021778,
                -0.011899031818652421,
                0.010004002194877924,
                -0.0003834850495232901,
                0.014808314102634257,
                -0.001121547251620468,
                -0.0045487622647800135
            ],
            [
                -0.018169707915090066,
                0.016960554276158394,
                -0.019854714276393057,
                0.014714979616159298,
                0.01519037557745341,
                0.007555524030553599,
                -0.013320613512978322,
                -0.016574682972234106
            ],
            [
                -0.019165315882117326,
                0.0037507591289558345,
                0.005096658480752355,
                -0.011824239583732882,
                -0.018733933997670753,
                0.01358156291278141,
                0.019618251107349948,
                0.007669090692515005
            ],
            [
                0.011733375461029824,
                0.005405780972982148,
                0.0008609239514422532,
                0.008976560404853416,
                -0.014588600228601135,
                0.014888439395072641,
                0.007025861900590678,
                -0.011890498133948121
            ],
            [
                -0.016520826454195475,
                0.00698442203296066,
                7.452811912833646e-06,
                0.0041556993104981295,
                -0.007365446424746583,
                -0.009500997888042663,
                -0.018005419342382614,
                -0.008650058876334561
            ]
        ],
        "l2_weights": [
            [
                0.015053395528356238,
                -0.003996332705576231,
                0.013614008848641172,
                0.013691713815131772
            ],
            [
                0.005108515047552043,
                -0.0069582889899086325,
                -0.01597845271577897,
                -0.016872871087016444
            ],
            [
                0.004011159352480907,
                -0.009276477688969303,
                0.015724500968512075,
                -0.007429944284260052
            ],
            [
                -0.015486785620524707,
                0.016509357440182962,
                0.003350077943530358,
                0.005262655757358615
            ],
            [
                -0.014542426016947718,
                0.001351586579202712,
                -0.007961325587961433,
                0.006430077401592122
            ],
            [
                -0.007225970215082459,
                0.013620634380200343,
                -0.00895497017058729,
                -0.0121863256716014
            ],
            [
                0.007134260139186822,
                0.0034272584417580436,
                0.005796537224467137,
                0.009360561561820909
            ],
            [
                0.01633103965924102,
                -0.011750401605648447,
                -0.0013141963429607027,
                -0.01703798186793842
            ]
        ],
        "l1_biases": [
            0.0,
            0.0,
            0.0,
            0.0,
            0.0,
            0.0,
            0.0,
            0.0
        ],
        "l2_biases": [
            0.0,
            0.0,
            0.0,
            0.0
        ]
    },
    {
        "l1_weights": [
            [
                -0.00820744489901008,
                -0.01385812312616561,
                0.0006698079061249381,
                0.013706153770982553,
                0.014385628160957075,
                0.01864036063417838,
                0.012035831875505098,
                -0.0022385282588793104
            ],
            [
                0.0056773726525601274,
                0.005191820105071802,
                -0.016326047096763656,
                0.017011449207710975,
                0.008243449447842974,
                -0.018786621665428042,
                0.004269096107935494,
                0.004357849877512902
            ],
            [
                -0.011627566367209493,
                0.0014480040621320488,
                -0.004658578123125457,
                -0.002867830440369031,
                -0.013502294073852361,
                -0.006983858691664261,
                0.01461941278595601,
                0.00027652451027881594
            ],
            [
                -0.009421957823968891,
                0.006361867272245156,
                0.013553464115789778,
                0.007844829613094465,
                -0.008109278527548575,
                -0.009716200459957252,
                -0.0057999096576651695,
                0.010213794480835913
            ],
            [
                0.019352216633223854,
                -0.01561734387774686,
                0.015463511888156301,
                0.008755578354310024,
                0.002760345490753234,
                -0.00944167252803067,
                0.0159070859565953,
                0.018057506006783564
            ],
            [
                -0.014596556810059672,
                -0.010816465626712622,
                0.007577717461058314,
                -0.013077772021672852,
                -0.008812643909519866,
                -0.01239350085602411,
                -0.006067762187658522,
                -0.007574124699045738
            ],
            [
                0.0033465031467754154,
                -0.00991072578452421,
                0.01357078669620709,
                -0.009932749678819764,
                0.0018016668659552903,
                -0.01965663644961038,
                0.015757124001326905,
                0.014341946279473845
            ],
            [
                0.007972003858184518,
                -0.0008936194456695002,
                -0.011899031818652421,
                0.009541119202576477,
                -0.00042502895590390555,
                0.014110081186925815,
                -0.0010667313371664656,
                -0.0045487622647800135
            ],
            [
                -0.019102054715473455,
                0.015491188018660113,
                -0.01995739067094351,
                0.013955097846237635,
                0.014614205194506454,
                0.007835237842159646,
                -0.012789143561264964,
                -0.015969613523058607
            ],
            [
                -0.018613945556232966,
                0.0036463497040032985,
                0.005586496390012796,
                -0.011406530528670815,
                -0.02007326416118207,
                0.01463180031219655,
                0.019010146804872494,
                0.008296468442763232
            ],
            [
                0.011842792472080758,
                0.005260150692341724,
                0.0007898338589733806,
                0.008976560404853416,
                -0.014588600228601135,
                0.014888439395072641,
                0.00678765989750292,
                -0.012566921405853256
            ],
            [
                -0.014658427178473862,
                0.007502914714565817,
                7.452811912833646e-06,
                0.004368918733695392,
                -0.007847170484223908,
                -0.008838781096393472,
                -0.017554419209215664,
                -0.00781804753640643
            ]
        ],
        "l2_weights": [
            [
                0.014361626593017741,
                -0.004141380676580361,
                0.013502020383341955,
                0.013615434631371664
            ],
            [
                0.0055033437820452245,
                -0.0069582889899086325,
                -0.01597845271577897,
                -0.019720715851158366
            ],
            [
                0.003604544832145916,
                -0.008225002965516856,
                0.016010328101206027,
                -0.007429944284260052
            ],
            [
                -0.014627356244125573,
                0.01766829931928025,
                0.003350077943530358,
                0.005005941795923817
            ],
            [
                -0.01572100896987571,
                0.0012641634029957496,
                -0.00841600682676337,
                0.007120747222803785
            ],
            [
                -0.007225970215082459,
                0.012915778677960548,
                -0.008688052836587272,
                -0.011810032533189912
            ],
            [
                0.006732653785372739,
                0.003137826988765781,
                0.006019933131902116,
                0.009360561561820909
            ],
            [
                0.018032115275637053,
                -0.013037784725718263,
                -0.0013018970220493675,
                -0.017186238512005104
            ]
        ],
        "l1_biases": [
            0.0,
            0.0,
            0.0,
            0.0,
            0.0,
            0.0,
            0.0,
            0.0
        ],
        "l2_biases": [
            0.0,
            0.0,
            0.0,
            0.0
        ]
    },
    {
        "l1_weights": [
            [
                -0.008080939547517192,
                -0.0147201480727178,
                0.0005041554190141349,
                0.012078594753962441,
                0.014385628160957075,
                0.01834145337874857,
                0.010699252865095628,
                -0.0023224544447648797
            ],
            [
                0.005396287001453882,
                0.005191820105071802,
                -0.01781459081137182,
                0.018109371462440415,
                0.0076765163586737205,
                -0.01709325854764744,
                0.00405498451061094,
                0.0046069238401813505
            ],
            [
                -0.01204428037717754,
                0.0014480040621320488,
                -0.004674851868541487,
                -0.0026991779669983404,
                -0.012914255890252286,
                -0.007647191223569233,
                0.01461941278595601,
                0.00027652451027881594
            ],
            [
                -0.008341930985145483,
                0.0068852129894034254,
                0.01376759811584604,
                0.008467829144018557,
                -0.007478967359063442,
                -0.008869880246587096,
                -0.006174401199458799,
                0.010997888741832794
            ],
            [
                0.01972378546288613,
                -0.01875218851884723,
                0.015463511888156301,
                0.00878294123871214,
                0.002606048518959058,
                -0.009897483143712705,
                0.01651622840928523,
                0.018057506006783564
            ],
            [
                -0.014596556810059672,
                -0.010816465626712622,
                0.007097558106477865,
                -0.013077772021672852,
                -0.00964429743918673,
                -0.01239350085602411,
                -0.006067762187658522,
                -0.006790581445545256
            ],
            [
                0.0035892477460455173,
                -0.010130457677166827,
                0.014586371952796717,
                -0.009932749678819764,
                0.0018932755311063519,
                -0.018732862998498842,
                0.01611569163330691,
                0.01480863733377004
            ],
            [
                0.007511890050286626,
                -0.0009124105938991992,
                -0.011899031818652421,
                0.010004002194877924,
                -0.0004170264862923222,
                0.013877357412353498,
                -0.0011541056524701514,
                -0.0045487622647800135
            ],
            [
                -0.018708275285237056,
                0.016960554276158394,
                -0.01995739067094351,
                0.013955097846237635,
                0.01583468460318822,
                0.007555524030553599,
                -0.012400456705960999,
                -0.016574682972234106
            ],
            [
                -0.018613945556232966,
                0.003795699241440621,
                0.005096658480752355,
                -0.011784028972855576,
                -0.019388903455398957,
                0.015385211429135626,
                0.019618251107349948,
                0.008294154789504675
            ],
            [
                0.012180722838569576,
                0.005260150692341724,
                0.0008511092731828158,
                0.008976560404853416,
                -0.01581215444335013,
                0.014888439395072641,
                0.007887779841506163,
                -0.012671484265009986
            ],
            [
                -0.014658427178473862,
                0.007502914714565817,
                6.216728159811852e-06,
                0.004368918733695392,
                -0.006833549811278594,
                -0.009298934786341199,
                -0.017657288547962908,
                -0.008650058876334561
            ]
        ],
        "l2_weights": [
            [
                0.01618680698441703,
                -0.004141380676580361,
                0.012666635820495164,
                0.01283401171596982
            ],
            [
                0.0055078869328779095,
                -0.0069582889899086325,
                -0.01597845271577897,
                -0.016572196931633486
            ],
            [
                0.0037505704128704444,
                -0.008225002965516856,
                0.016049553137863385,
                -0.007570231021174839
            ],
            [
                -0.015387560336311258,
                0.017885249491545886,
                0.003350077943530358,
                0.005270414713002446
            ],
            [
                -0.016485701388708498,
                0.001254662728931418,
                -0.00841600682676337,
                0.006950335898269123
            ],
            [
                -0.006605834263675246,
                0.01203665830443798,
                -0.008688052836587272,
                -0.011909218990009018
            ],
            [
                0.007176324296302501,
                0.003124723960224636,
                0.006019933131902116,
                0.00900326341010212
            ],
            [
                0.01672622927512507,
                -0.013037784725718263,
                -0.001349629852674901,
                -0.016451187627844043
            ]
        ],
        "l1_biases": [
            0.0,
            0.0,
            0.0,
            0.0,
            0.0,
            0.0,
            0.0,
            0.0
        ],
        "l2_biases": [
            0.0,
            0.0,
            0.0,
            0.0
        ]
    },
    {
        "l1_weights": [
            [
                -0.008366141719799387,
                -0.0147201480727178,
                0.0006142316532484135,
                0.013311925622261241,
                0.014521136329535013,
                0.01864036063417838,
                0.011931259601052837,
                -0.0022385282588793104
            ],
            [
                0.0056773726525601274,
                0.0049553413078209695,
                -0.01578407746903767,
                0.018140613113664092,
                0.0076765163586737205,
                -0.020615296351431642,
                0.004208365867042448,
                0.0046069238401813505
            ],
            [
                -0.012227799660045661,
                0.0014480040621320488,
                -0.00478067635499865,
                -0.002867830440369031,
                -0.01251481805019104,
                -0.0075796206214724425,
                0.01461941278595601,
                0.00027652451027881594
            ],
            [
                -0.010014756740279875,
                0.0068852129894034254,
                0.013796211199438656,
                0.00869298990993537,
                -0.009169516522837566,
                -0.009716200459957252,
                -0.0057999096576651695,
                0.009984545661417118
            ],
            [
                0.01972378546288613,
                -0.01805272058988365,
                0.014525273108502466,
                0.00878294123871214,
                0.002760345490753234,
                -0.010454095526019414,
                0.0159070859565953,
                0.018057506006783564
            ],
            [
                -0.013980145685342308,
                -0.010816465626712622,
                0.007272049271591141,
                -0.013077772021672852,
                -0.009690737693631954,
                -0.012277333476733591,
                -0.006264059418185029,
                -0.006790581445545256
            ],
            [
                0.003401253370777649,
                -0.010544105974594981,
                0.014836042095785157,
                -0.009932749678819764,
                0.001833410993153259,
                -0.01919333500651099,
                0.01685703826026256,
                0.013325899667518827
            ],
            [
                0.008141429295522338,
                -0.0009600986480070208,
                -0.011704994694626707,
                0.009126063897986708,
                -0.00042502895590390555,
                0.014996140407047519,
                -0.0009915760612577108,
                -0.004381117587248284
            ],
            [
                -0.019930102692179662,
                0.016405145119291493,
                -0.01943072062661098,
                0.013667572582777145,
                0.014614205194506454,
                0.007555524030553599,
                -0.012306259311207846,
                -0.016574682972234106
            ],
            [
                -0.018613945556232966,
                0.0036195834912419278,
                0.005301303191098527,
                -0.01162641872199415,
                -0.019236971148352506,
                0.015984562488704647,
                0.019618251107349948,
                0.007586014017140738
            ],
            [
                0.011757733489405313,
                0.005567712943344781,
                0.0008265899455739221,
                0.009574379013481482,
                -0.014588600228601135,
                0.015576638565416334,
                0.0077495155075412644,
                -0.01230995314068349
            ],
            [
                -0.015983098599075526,
                0.00700037793867812,
                7.452811912833646e-06,
                0.004021143440895275,
                -0.007353876203397196,
                -0.009608083465450147,
                -0.018005419342382614,
                -0.008836187221429485
            ]
        ],
        "l2_weights": [
            [
                0.015705802476068776,
                -0.004519678191707152,
                0.01349285519010468,
                0.013641126674191274
            ],
            [
                0.005382668839018893,
                -0.007722319773412399,
                -0.01597845271577897,
                -0.01828756132366044
            ],
            [
                0.0037505704128704444,
                -0.008368234422131922,
                0.015724500968512075,
                -0.007429944284260052
            ],
            [
                -0.015387560336311258,
                0.017520218722142974,
                0.003350077943530358,
                0.005425548607338912
            ],
            [
                -0.0163750818651584,
                0.0013760264900248712,
                -0.00841600682676337,
                0.006900352239207531
            ],
            [
                -0.007225970215082459,
                0.012915778677960548,
                -0.009040297898215635,
                -0.011981688324163709
            ],
            [
                0.00788908333014755,
                0.0034307649961230913,
                0.005796537224467137,
                0.008672041288319611
            ],
            [
                0.015384978521347615,
                -0.012759873274086285,
                -0.0013141963429607027,
                -0.01658325714500033
            ]
        ],
        "l1_biases": [
            0.0,
            0.0,
            0.0,
            0.0,
            0.0,
            0.0,
            0.0,
            0.0
        ],
        "l2_biases": [
            0.0,
            0.0,
            0.0,
            0.0
        ]
    },
    {
        "l1_weights": [
            [
                -0.00871076968362776,
                -0.0147201480727178,
                0.000557618671948646,
                0.012786865894759313,
                0.014385628160957075,
                0.01864036063417838,
                0.011165728952497922,
                -0.0022385282588793104
            ],
            [
                0.0056773726525601274,
                0.004794084812196647,
                -0.016956023056072717,
                0.018234901956741024,
                0.007296093272436587,
                -0.017724247685603156,
                0.00405498451061094,
                0.0046069238401813505
            ],
            [
                -0.011627566367209493,
                0.0014480040621320488,
                -0.004674851868541487,
                -0.002867830440369031,
                -0.012914255890252286,
                -0.007647191223569233,
                0.01461941278595601,
                0.00027652451027881594
            ],
            [
                -0.009196969892295223,
                0.006662194420170363,
                0.014504756014110522,
                0.008467829144018557,
                -0.008214912564733865,
                -0.009716200459957252,
                -0.0057999096576651695,
                0.011174570332194378
            ],
            [
                0.018582303812190976,
                -0.01733672327286229,
                0.015463511888156301,
                0.00878294123871214,
                0.002774279251325526,
                -0.009897483143712705,
                0.0159070859565953,
                0.018057506006783564
            ],
            [
                -0.014596556810059672,
                -0.010816465626712622,
                0.007097558106477865,
                -0.013077772021672852,
                -0.008812643909519866,
                -0.01239350085602411,
                -0.006492320136150187,
                -0.006790581445545256
            ],
            [
                0.003812638869503964,
                -0.00991072578452421,
                0.01357078669620709,
                -0.00965783769444866,
                0.0018745604981599221,
                -0.01951261290465728,
                0.015872043997078693,
                0.014057313140724188
            ],
            [
                0.007511890050286626,
                -0.0009223224977021778,
                -0.011899031818652421,
                0.010004002194877924,
                -0.0003899302299429641,
                0.014110081186925815,
                -0.0010786621399638693,
                -0.005042428412489994
            ],
            [
                -0.01875657145333568,
                0.016960554276158394,
                -0.020999944954815896,
                0.013955097846237635,
                0.01593050527131442,
                0.007555524030553599,
                -0.012789143561264964,
                -0.016574682972234106
            ],
            [
                -0.018613945556232966,
                0.003676958870030669,
                0.005096658480752355,
                -0.011784028972855576,
                -0.019388903455398957,
                0.01463180031219655,
                0.019618251107349948,
                0.007762668910015345
            ],
            [
                0.012540112822668488,
                0.005260150692341724,
                0.0008511092731828158,
                0.008976560404853416,
                -0.014308291390105997,
                0.014888439395072641,
                0.0077495155075412644,
                -0.012671484265009986
            ],
            [
                -0.014658427178473862,
                0.00735146256232464,
                7.452811912833646e-06,
                0.004025281259992646,
                -0.007319521485606929,
                -0.008744711308676753,
                -0.018005419342382614,
                -0.008650058876334561
            ]
        ],
        "l2_weights": [
            [
                0.016612736448051012,
                -0.004141380676580361,
                0.012666635820495164,
                0.013277186306527163
            ],
            [
                0.0055033437820452245,
                -0.006754427448449128,
                -0.01597845271577897,
                -0.018161255790906647
            ],
            [
                0.0037505704128704444,
                -0.008225002965516856,
                0.01719957902206534,
                -0.007429944284260052
            ],
            [
                -0.015387560336311258,
                0.018962453878133504,
                0.003350077943530358,
                0.005005941795923817
            ],
            [
                -0.015389471878625497,
                0.0011004591592763575,
                -0.00841600682676337,
                0.006950335898269123
            ],
            [
                -0.007225970215082459,
                0.01214475855658061,
                -0.008688052836587272,
                -0.011810032533189912
            ],
            [
                0.007422235339856736,
                0.003137826988765781,
                0.006420671744445829,
                0.009503552020656322
            ],
            [
                0.01829017451857351,
                -0.01216841478603292,
                -0.001349629852674901,
                -0.016451187627844043
            ]
        ],
        "l1_biases": [
            0.0,
            0.0,
            0.0,
            0.0,
            0.0,
            0.0,
            0.0,
            0.0
        ],
        "l2_biases": [
            0.0,
            0.0,
            0.0,
            0.0
        ]
    },
    {
        "l1_weights": [
            [
                -0.008969998365137446,
                -0.0147201480727178,
                0.0006360022825279406,
                0.01404089997665035,
                0.013569513926395417,
                0.01864036063417838,
                0.012744165410015603,
                -0.0021793739827102856
            ],
            [
                0.005771075394391277,
                0.005191820105071802,
                -0.016956023056072717,
                0.018109371462440415,
                0.0076765163586737205,
                -0.018891579088967082,
                0.004274235454407256,
                0.004466863053861202
            ],
            [
                -0.011208591618610337,
                0.0014480040621320488,
                -0.005312043804114267,
                -0.002867830440369031,
                -0.012779702885207082,
                -0.008094119982833861,
                0.015619509776253971,
                0.00030237753263261883
            ],
            [
                -0.009196969892295223,
                0.005849250290135807,
                0.01249680797794656,
                0.008467829144018557,
                -0.008214912564733865,
                -0.008991793675490748,
                -0.0057999096576651695,
                0.010997888741832794
            ],
            [
                0.0193752479418997,
                -0.01733672327286229,
                0.014525273108502466,
                0.00878294123871214,
                0.0027940059565102907,
                -0.010079631250630241,
                0.015203647817156675,
                0.018057506006783564
            ],
            [
                -0.013856924297118359,
                -0.010816465626712622,
                0.007097558106477865,
                -0.013077772021672852,
                -0.008868993387291295,
                -0.011275820731324514,
                -0.006814547157950388,
                -0.005776140541300179
            ],
            [
                0.0035850539737951933,
                -0.010766240717902687,
                0.01357078669620709,
                -0.01019791400520635,
                0.0018552373564971608,
                -0.01850880906047536,
                0.015897334576064275,
                0.014991328486958019
            ],
            [
                0.006847498713288774,
                -0.0008894334099651001,
                -0.013332819870417137,
                0.010522941992530519,
                -0.00042502895590390555,
                0.011790294820570913,
                -0.001126536158662399,
                -0.0045487622647800135
            ],
            [
                -0.01875657145333568,
                0.016960554276158394,
                -0.021877890981610703,
                0.014883045732295496,
                0.014614205194506454,
                0.006890201781654653,
                -0.014020619728362077,
                -0.01681810750551607
            ],
            [
                -0.020431848814884544,
                0.0037312881579216603,
                0.005096658480752355,
                -0.010570426317431558,
                -0.019181773198903813,
                0.01392036116169058,
                0.019618251107349948,
                0.008476492637266311
            ],
            [
                0.012180722838569576,
                0.005042048866153342,
                0.0008511092731828158,
                0.008976560404853416,
                -0.013942033108380238,
                0.015409805025057517,
                0.0077495155075412644,
                -0.01116805186766656
            ],
            [
                -0.014417885026552196,
                0.007011369301508716,
                7.67562554007627e-06,
                0.004368918733695392,
                -0.007365446424746583,
                -0.009614242983119187,
                -0.018005419342382614,
                -0.00824105229560848
            ]
        ],
        "l2_weights": [
            [
                0.016504537222641825,
                -0.0046997366791484505,
                0.012666635820495164,
                0.013691713815131772
            ],
            [
                0.005337370545367605,
                -0.00666196729340001,
                -0.017120501624155276,
                -0.018161255790906647
            ],
            [
                0.0036660143934570907,
                -0.008672006516700017,
                0.014343205381600296,
                -0.007684417332257378
            ],
            [
                -0.015387560336311258,
                0.01766829931928025,
                0.002931684645048888,
                0.005416392071427742
            ],
            [
                -0.015389471878625497,
                0.0013733811992605832,
                -0.00841600682676337,
                0.006900352239207531
            ],
            [
                -0.007225970215082459,
                0.012915778677960548,
                -0.008534767712420534,
                -0.011192365026492838
            ],
            [
                0.00788908333014755,
                0.0034272584417580436,
                0.005796537224467137,
                0.009360561561820909
            ],
            [
                0.015384978521347615,
                -0.014796574553707646,
                -0.0013141963429607027,
                -0.01574958825967752
            ]
        ],
        "l1_biases": [
            0.0,
            0.0,
            0.0,
            0.0,
            0.0,
            0.0,
            0.0,
            0.0
        ],
        "l2_biases": [
            0.0,
            0.0,
            0.0,
            0.0
        ]
    },
    {
        "l1_weights": [
            [
                -0.008969998365137446,
                -0.015203694663187259,
                0.0005957060464207494,
                0.012786865894759313,
                0.015185570964445463,
                0.01864036063417838,
                0.011280550230070342,
                -0.0023363006409067733
            ],
            [
                0.0056773726525601274,
                0.005191820105071802,
                -0.016956023056072717,
                0.018109371462440415,
                0.0076765163586737205,
                -0.017724247685603156,
                0.0038237769508504796,
                0.0046069238401813505
            ],
            [
                -0.012435597687011102,
                0.0014480040621320488,
                -0.00478067635499865,
                -0.0031407995720471073,
                -0.012520346046387718,
                -0.007344659503092666,
                0.01461941278595601,
                0.00027805460232003214
            ],
            [
                -0.009196969892295223,
                0.0068852129894034254,
                0.013553464115789778,
                0.008467829144018557,
                -0.007504195686731374,
                -0.009716200459957252,
                -0.0057999096576651695,
                0.011383197395951172
            ],
            [
                0.018356456177968113,
                -0.01836846940409044,
                0.015463511888156301,
                0.009315342044391297,
                0.002760345490753234,
                -0.009897483143712705,
                0.0159070859565953,
                0.018057506006783564
            ],
            [
                -0.014596556810059672,
                -0.010816465626712622,
                0.007740371841981324,
                -0.013077772021672852,
                -0.008617065815364934,
                -0.01239350085602411,
                -0.006107209867007373,
                -0.006790581445545256
            ],
            [
                0.003941336927171308,
                -0.00963914335378488,
                0.01357078669620709,
                -0.009318783494236729,
                0.0018552373564971608,
                -0.016918083703825207,
                0.016090863357571313,
                0.014057313140724188
            ],
            [
                0.007511890050286626,
                -0.0009223224977021778,
                -0.01291347427346474,
                0.008795391809966096,
                -0.00042502895590390555,
                0.014110081186925815,
                -0.0010148348109182699,
                -0.004172814024251804
            ],
            [
                -0.020508909933157436,
                0.016960554276158394,
                -0.01995739067094351,
                0.01482200435278072,
                0.014614205194506454,
                0.007555524030553599,
                -0.013369562881899257,
                -0.016574682972234106
            ],
            [
                -0.018613945556232966,
                0.003761354318553959,
                0.005056874963839419,
                -0.011784028972855576,
                -0.01857493675178934,
                0.015567608094496463,
                0.019618251107349948,
                0.007762668910015345
            ],
            [
                0.012584226784435696,
                0.0054009913741289006,
                0.0008399619261745496,
                0.008976560404853416,
                -0.01365979125534513,
                0.014888439395072641,
                0.0077495155075412644,
                -0.012671484265009986
            ],
            [
                -0.014205684719436056,
                0.00700037793867812,
                7.452811912833646e-06,
                0.004368918733695392,
                -0.007413629631196015,
                -0.009500997888042663,
                -0.018005419342382614,
                -0.008650058876334561
            ]
        ],
        "l2_weights": [
            [
                0.015705802476068776,
                -0.004344399374433978,
                0.013663610753852045,
                0.01375595192807105
            ],
            [
                0.005265034416368892,
                -0.0069582889899086325,
                -0.01818624560068943,
                -0.018161255790906647
            ],
            [
                0.00407577596966072,
                -0.008089618124133264,
                0.015724500968512075,
                -0.007429944284260052
            ],
            [
                -0.014441855141958868,
                0.01766829931928025,
                0.003210424710855771,
                0.005262655757358615
            ],
            [
                -0.01668499452559104,
                0.001351586579202712,
                -0.00841600682676337,
                0.006300472813426814
            ],
            [
                -0.007225970215082459,
                0.012915778677960548,
                -0.008981638016450286,
                -0.011810032533189912
            ],
            [
                0.008143446016436278,
                0.003137826988765781,
                0.005545154428695602,
                0.009360561561820909
            ],
            [
                0.016642488755057305,
                -0.01221887258180431,
                -0.0013190090543757499,
                -0.016451187627844043
            ]
        ],
        "l1_biases": [
            0.0,
            0.0,
            0.0,
            0.0,
            0.0,
            0.0,
            0.0,
            0.0
        ],
        "l2_biases": [
            0.0,
            0.0,
            0.0,
            0.0
        ]
    },
    {
        "l1_weights": [
            [
                -0.008827845630055162,
                -0.013622692150638268,
                0.0006142316532484135,
                0.012786865894759313,
                0.014385628160957075,
                0.018671014358413316,
                0.011280550230070342,
                -0.0022385282588793104
            ],
            [
                0.005562037233383256,
                0.005191820105071802,
                -0.019370704122257193,
                0.018109371462440415,
                0.00837008222583086,
                -0.017724247685603156,
                0.003840699742064216,
                0.0046069238401813505
            ],
            [
                -0.011627566367209493,
                0.0014480040621320488,
                -0.0043189991489404524,
                -0.002867830440369031,
                -0.012914255890252286,
                -0.0072855498340701685,
                0.01461941278595601,
                0.0002597705066076187
            ],
            [
                -0.009196969892295223,
                0.007236726353497157,
                0.01231474941230823,
                0.008467829144018557,
                -0.008214912564733865,
                -0.01024458133751886,
                -0.0057999096576651695,
                0.010997888741832794
            ],
            [
                0.01972378546288613,
                -0.01709476073367481,
                0.017613989328354285,
                0.00878294123871214,
                0.002795753308534395,
                -0.010213281782596569,
                0.0159070859565953,
                0.018057506006783564
            ],
            [
                -0.014119949191210297,
                -0.010816465626712622,
                0.007097558106477865,
                -0.0121225364027237,
                -0.008098310666205439,
                -0.01239350085602411,
                -0.006107846399941599,
                -0.0070337008308706235
            ],
            [
                0.0035892477460455173,
                -0.00991072578452421,
                0.013190793475959897,
                -0.010251613086864439,
                0.0017845877476802636,
                -0.021730827122883715,
                0.015872043997078693,
                0.014057313140724188
            ],
            [
                0.007511890050286626,
                -0.0009223224977021778,
                -0.011899031818652421,
                0.010540739959001646,
                -0.0004459418393037925,
                0.014282906213585043,
                -0.001017472576112115,
                -0.0045487622647800135
            ],
            [
                -0.02027938979073203,
                0.016960554276158394,
                -0.01995739067094351,
                0.013955097846237635,
                0.014614205194506454,
                0.0076777866551344,
                -0.012789143561264964,
                -0.018051115862814986
            ],
            [
                -0.018613945556232966,
                0.003655425784175397,
                0.005079807648875612,
                -0.011784028972855576,
                -0.01848273867848467,
                0.013198840313901403,
                0.019618251107349948,
                0.007762668910015345
            ],
            [
                0.013019131444431599,
                0.005260150692341724,
                0.0008511092731828158,
                0.009707449992656525,
                -0.014588600228601135,
                0.014888439395072641,
                0.007603373225669051,
                -0.012671484265009986
            ],
            [
                -0.014658427178473862,
                0.007502914714565817,
                7.452811912833646e-06,
                0.004368918733695392,
                -0.007319521485606929,
                -0.009298934786341199,
                -0.017591239652365184,
                -0.008650058876334561
            ]
        ],
        "l2_weights": [
            [
                0.015705802476068776,
                -0.004141380676580361,
                0.012666635820495164,
                0.013277186306527163
            ],
            [
                0.005216695515651414,
                -0.0069635459991218675,
                -0.01597845271577897,
                -0.018161255790906647
            ],
            [
                0.003691414793711553,
                -0.008225002965516856,
                0.01719957902206534,
                -0.00714632003665641
            ],
            [
                -0.015387560336311258,
                0.01653821293996176,
                0.003350077943530358,
                0.005005941795923817
            ],
            [
                -0.014046257470249946,
                0.0012641634029957496,
                -0.00841600682676337,
                0.006950335898269123
            ],
            [
                -0.007225970215082459,
                0.012522747213758241,
                -0.008688052836587272,
                -0.011810032533189912
            ],
            [
                0.007422235339856736,
                0.002943338916604166,
                0.005599044674752812,
                0.009360561561820909
            ],
            [
                0.01672622927512507,
                -0.013037784725718263,
                -0.001387250924894847,
                -0.016451187627844043
            ]
        ],
        "l1_biases": [
            0.0,
            0.0,
            0.0,
            0.0,
            0.0,
            0.0,
            0.0,
            0.0
        ],
        "l2_biases": [
            0.0,
            0.0,
            0.0,
            0.0
        ]
    },
    {
        "l1_weights": [
            [
                -0.008969998365137446,
                -0.014566419300705843,
                0.0006142316532484135,
                0.0115926763760677,
                0.015392932537986122,
                0.01929930069362864,
                0.011560618739693372,
                -0.0020874549682387113
            ],
            [
                0.0056773726525601274,
                0.005020979730294332,
                -0.01548624933642493,
                0.017580082878305075,
                0.008316914802334497,
                -0.017724247685603156,
                0.004096559650183265,
                0.0046069238401813505
            ],
            [
                -0.012723442378308308,
                0.0014400421921617907,
                -0.004808917048801948,
                -0.002867830440369031,
                -0.012800388010174486,
                -0.007417032946617579,
                0.01461941278595601,
                0.00027652451027881594
            ],
            [
                -0.00990275971545967,
                0.0068852129894034254,
                0.013553464115789778,
                0.008467829144018557,
                -0.008214912564733865,
                -0.009716200459957252,
                -0.0057999096576651695,
                0.011045093257772092
            ],
            [
                0.01972378546288613,
                -0.01733672327286229,
                0.015919397133381363,
                0.00878294123871214,
                0.002760345490753234,
                -0.009781315494613476,
                0.0159070859565953,
                0.018057506006783564
            ],
            [
                -0.014596556810059672,
                -0.011265644691763482,
                0.007097558106477865,
                -0.013077772021672852,
                -0.008812643909519866,
                -0.01239350085602411,
                -0.006356819157798574,
                -0.006267736414208874
            ],
            [
                0.003906966725355877,
                -0.010816993633893907,
                0.012714398566193875,
                -0.009932749678819764,
                0.0018552373564971608,
                -0.01993005964378016,
                0.016090863357571313,
                0.015299776402561967
            ],
            [
                0.007940055130048987,
                -0.0008545959448044588,
                -0.013441645516117744,
                0.010004002194877924,
                -0.00042502895590390555,
                0.014110081186925815,
                -0.001121547251620468,
                -0.0045487622647800135
            ],
            [
                -0.018633274951231606,
                0.016960554276158394,
                -0.01995739067094351,
                0.013667572582777145,
                0.015633033232855503,
                0.007555524030553599,
                -0.013320613512978322,
                -0.016574682972234106
            ],
            [
                -0.018613945556232966,
                0.003761354318553959,
                0.005096658480752355,
                -0.012675610575984892,
                -0.01830688710332365,
                0.015575226799018505,
                0.019521857851963528,
                0.007762668910015345
            ],
            [
                0.011805155761839308,
                0.005347972932339554,
                0.0007795254284977604,
                0.008976560404853416,
                -0.014588600228601135,
                0.014888439395072641,
                0.008171046996094729,
                -0.012671484265009986
            ],
            [
                -0.014658427178473862,
                0.00700037793867812,
                7.127991115201931e-06,
                0.004368918733695392,
                -0.008329851027822213,
                -0.009500997888042663,
                -0.01767940770391253,
                -0.0098124569417561
            ]
        ],
        "l2_weights": [
            [
                0.016346524083128464,
                -0.004141380676580361,
                0.012666635820495164,
                0.013691713815131772
            ],
            [
                0.0055202808176561475,
                -0.007126808592589893,
                -0.01597845271577897,
                -0.018161255790906647
            ],
            [
                0.0037505704128704444,
                -0.007535751743806344,
                0.015724500968512075,
                -0.008465913511647914
            ],
            [
                -0.016844172764609255,
                0.01728792079539843,
                0.003350077943530358,
                0.005262655757358615
            ],
            [
                -0.01550197218419301,
                0.001351586579202712,
                -0.007657521796169211,
                0.0073689082672015105
            ],
            [
                -0.0062472741335533625,
                0.012486985109953545,
                -0.008688052836587272,
                -0.011025779165504254
            ],
            [
                0.007422235339856736,
                0.003137826988765781,
                0.005796537224467137,
                0.009360561561820909
            ],
            [
                0.015191077658426172,
                -0.011836307418008434,
                -0.001349629852674901,
                -0.015061876724777252
            ]
        ],
        "l1_biases": [
            0.0,
            0.0,
            0.0,
            0.0,
            0.0,
            0.0,
            0.0,
            0.0
        ],
        "l2_biases": [
            0.0,
            0.0,
            0.0,
            0.0
        ]
    },
    {
        "l1_weights": [
            [
                -0.008969998365137446,
                -0.0147201480727178,
                0.0005858290790941676,
                0.012786865894759313,
                0.014385628160957075,
                0.01864036063417838,
                0.011280550230070342,
                -0.0023224544447648797
            ],
            [
                0.005396287001453882,
                0.005191820105071802,
                -0.016956023056072717,
                0.018109371462440415,
                0.0076765163586737205,
                -0.01908876289905371,
                0.00405498451061094,
                0.0046069238401813505
            ],
            [
                -0.01204428037717754,
                0.0014480040621320488,
                -0.004674851868541487,
                -0.0026991779669983404,
